// Auto-generated LeNet-5 weight file
// Do not edit manually
#pragma once

#include <ap_int.h>

// Auto-generated by quantize_export.py
// f6_w: shape (84, 120), dtype int8
const ap_int<8> f6_w[10080] = {
    65, -60, 73, -48, 65, -53, -84, 17, -71, -19, 29, 67, 39, 12, -48, -5,
    -87, 58, 83, -20, -82, 25, -45, -23, -70, -24, -37, -12, 70, 87, 2, 53,
    23, 22, 0, 62, 96, -34, -64, -43, -46, 37, -54, -40, -12, 30, 14, -54,
    -55, 20, -25, -65, -90, -38, -36, 66, -37, 74, 89, 4, -53, 77, -57, 43,
    -78, 95, 49, 92, -41, 65, 8, 41, 63, -5, -54, -38, -76, 61, 66, -50,
    -18, 52, 43, -39, -68, -58, 15, -79, -84, -52, -54, 35, -1, -48, -28, -26,
    18, -53, -44, -32, 61, -49, 51, -9, -35, 34, 80, -18, 34, 14, 0, 104,
    59, 20, -47, -29, 36, -74, -102, 60, -19, 49, -26, -32, -40, -5, 4, 37,
    59, -30, -32, -35, 80, 25, 25, 42, 71, 83, -76, -28, 37, 76, 59, -54,
    86, 41, 14, 16, 92, -22, -50, 15, 75, -25, 1, -77, -15, -68, 68, 57,
    -83, -16, -91, -38, 5, 99, -47, 27, -35, -12, -33, 8, -2, -59, 64, -34,
    -58, -49, -32, 78, -27, -27, 38, 19, -16, -81, 53, 88, -86, -44, 30, -70,
    40, 70, 10, 10, -46, 83, 66, 3, -52, 7, 105, -83, 29, -2, 61, 8,
    -25, 46, -63, 47, 91, -25, 28, -72, -46, 19, 83, 16, 25, -23, -18, 6,
    4, -52, -76, 26, 48, 117, 6, 48, -35, -37, -75, -66, 6, -27, 26, 38,
    89, -25, -25, -8, 58, 30, -65, 32, -29, -66, 20, 52, -49, 56, 54, 12,
    2, 7, -51, -12, -71, -1, 78, 17, -55, 39, -16, 66, 33, 44, -19, 69,
    49, -31, 83, -12, 125, -25, 40, -60, 74, 88, -11, -74, -50, -62, -24, 15,
    -79, -69, 71, 15, 60, -72, 28, 66, -26, 76, -58, -49, 102, -61, -13, -38,
    26, 23, 69, 80, -23, -21, 2, -28, 50, 24, -25, 59, 48, 52, 66, -61,
    16, 85, -36, 90, 31, -84, 2, 11, 71, -85, -79, 55, -60, 36, -59, -56,
    -20, -54, -4, -79, 76, 28, 16, 17, -38, 0, 68, -15, 13, -12, -87, 71,
    83, 69, 62, 16, 56, 27, 4, -7, -62, 70, 38, 41, 44, 36, 91, -47,
    78, 37, 75, -61, -85, 19, 9, 28, 25, 81, -9, 97, 4, -66, 56, 21,
    52, 32, -87, -45, -73, -34, -55, 58, 77, 65, -22, -25, 16, 27, -74, 46,
    66, -45, -54, 28, 42, -21, -86, -25, 41, 3, -62, -57, 6, 56, 57, -2,
    -14, -58, -4, -90, -46, 79, 19, -57, -69, 33, 8, 71, -38, -14, 28, -57,
    43, -12, 85, 70, 53, 74, -9, 55, -50, -63, 35, -46, 39, -49, 12, -1,
    -63, 53, -68, -40, 81, 7, -56, 55, -28, -78, -16, -64, -16, 19, -20, -57,
    57, 21, -26, -40, -45, 9, -38, 99, 43, -47, -69, 78, -47, 31, -95, -21,
    -12, 55, -6, 28, 40, -32, 34, -51, 69, 64, 53, 54, 2, -61, 3, 3,
    -78, 51, 15, 37, -24, -79, -76, 17, 7, -31, -75, -24, 0, 62, -38, -47,
    40, -7, 1, -49, 23, -29, -6, 68, 0, -37, -10, 90, -3, -3, -9, 45,
    1, 54, 31, 22, -90, -32, 40, 48, -60, 31, 67, -27, 55, -30, -53, -88,
    33, 66, -34, 22, -59, 32, 53, -17, 79, -12, -69, 85, 16, 23, -12, 45,
    76, 83, -75, 69, 29, -23, 30, 72, -56, 67, 52, -69, -11, 39, 21, -71,
    -5, -36, 12, 30, 59, 79, -3, 40, -9, -89, 58, 48, -51, -43, -74, -46,
    50, -10, 38, 45, 47, 82, -21, 50, -69, -39, 52, 72, -42, 52, -59, -21,
    79, -48, 102, -36, -53, -15, 74, -62, 106, 44, 60, 103, -67, -3, 27, 19,
    65, -30, 2, 66, 45, -53, 39, -50, -25, -47, 13, -25, -57, -50, -72, 53,
    71, -33, 4, -83, -50, 76, 41, -16, -58, -21, 50, 11, -55, 75, -11, 27,
    -21, 53, -5, -80, -83, 69, -3, 10, 27, -48, -63, -22, 26, 27, 14, 88,
    -7, 96, 84, -40, -10, -21, 41, 42, -54, 42, -26, -58, 1, -47, -50, 62,
    -33, -75, -31, -8, 64, 70, 5, -68, 63, -54, 78, 49, 0, 35, -49, 19,
    -14, -78, -45, 21, -71, -64, 84, -20, 79, 1, 58, -59, 11, -84, 63, 19,
    -74, 1, 0, -69, 57, 39, -46, -26, 48, 47, -3, -17, 53, -78, 70, -15,
    -17, 32, -61, -92, 27, -19, 55, -74, 14, -21, 7, -48, -68, 60, 19, -81,
    2, -78, 38, 49, 63, -43, 68, 18, 35, 84, 49, 9, 44, -67, 31, 15,
    28, 90, 72, -82, 33, -70, 53, 79, 67, -61, 30, -26, -15, -49, 65, 7,
    5, 6, -11, -81, 85, -86, 64, 48, -34, 25, -85, -36, 46, -33, 32, -27,
    -83, 4, 62, 96, 84, -58, 9, 60, 55, 78, 6, -15, 57, -26, 32, 43,
    -77, -37, -19, -12, -75, -19, -38, 23, 25, 45, -64, -65, 69, 18, -110, -53,
    82, 29, -51, -29, 1, -78, -27, 74, 24, 73, 91, 22, -32, 63, -66, 52,
    -27, -65, 21, 80, 43, -40, 17, 10, -43, -18, 59, 66, -19, -35, 2, -27,
    -42, -25, 35, -5, 85, -56, 80, 65, 60, 26, -60, -8, -37, 0, -43, 50,
    64, -67, -62, 80, 28, 45, 52, -57, -72, -13, -1, 16, 1, 14, -52, 90,
    45, 36, -33, -70, 39, 11, 1, 55, -95, -11, -12, 82, 29, 13, 42, -69,
    58, -80, -11, -71, -44, 17, -12, -41, 11, 23, 31, -64, -34, -48, -87, -26,
    -67, -79, -54, 37, -19, -63, 59, 36, -49, -24, 27, 7, -34, -13, -42, -2,
    41, 38, 49, 50, 65, 84, -72, -60, -72, 90, -42, -84, 75, 71, -7, 77,
    24, -86, 25, 76, -34, 39, 11, 73, -61, 34, -24, 83, -57, 1, 97, 34,
    30, -87, -71, -30, -87, -45, -62, -47, 80, -11, 75, -40, 21, -4, 77, 11,
    52, -3, -11, -60, 74, 22, -85, 39, 38, 11, -45, 59, -4, 77, 16, -56,
    -33, 33, -55, 82, -17, 66, 4, -26, -10, 51, -48, -90, 72, -2, 31, 71,
    -59, 61, -23, 60, -40, -57, 69, -86, -12, -44, 63, -9, 85, 47, -63, 0,
    3, -20, 40, -19, -21, -30, -75, 91, 72, -17, 57, 52, -33, 23, -79, 20,
    49, -55, 9, -33, 15, -41, -54, 13, 57, -27, 50, 83, 66, -59, 11, 36,
    81, 63, 26, 74, -11, -51, 24, -77, 43, 40, -20, -61, -61, 40, -48, -84,
    55, -19, 47, -39, -31, 50, 82, -57, -78, 5, -71, -49, -32, 78, 13, -81,
    -74, 1, -3, 31, 3, -22, -21, -5, 45, -79, 23, 65, 36, 60, -74, 17,
    -3, 41, 25, -12, 50, -52, -91, -48, 59, 43, -60, -44, -18, 66, 24, 64,
    -75, 24, 0, -93, 21, -76, -32, 84, 21, -43, 70, 68, 12, -21, 61, 1,
    37, -83, 47, -47, -37, 42, -71, 17, -3, -89, -66, 65, -15, -31, 40, -31,
    -3, -34, 66, -84, -36, 60, -20, -27, -26, 43, -84, 39, 38, -84, 9, 86,
    -66, 55, 79, -73, -5, 36, -76, -25, -27, -13, -7, 27, -66, 37, -84, 50,
    68, -42, -59, 18, -73, 54, 19, 56, -1, -33, 42, 68, 46, -30, 54, 63,
    -90, -68, -26, -43, 78, 7, -36, -52, 15, -73, 60, 0, 30, -39, 18, 44,
    31, -85, -34, -85, -50, 53, -73, -77, -48, -50, 80, -24, -72, 28, -40, 51,
    33, -5, 0, 26, 29, 11, 4, -69, -26, 45, 12, -70, 33, -17, -63, -61,
    -40, -39, 55, -9, 51, 33, -25, -38, 82, 37, 36, -74, -29, 62, 20, 65,
    42, 13, -13, 3, 9, -15, 19, 51, 13, -71, 42, -58, -45, 67, 66, 10,
    -27, 36, -23, -62, -43, 64, 90, -5, -58, 37, 22, -61, 35, 25, -83, 34,
    6, 5, 8, 39, -51, -84, -57, 86, -14, -1, 82, 40, 13, 31, 63, -85,
    44, -49, 27, -67, 61, 38, 79, 56, 56, -19, -31, -46, -7, -78, -68, -42,
    36, -4, -39, 51, 34, 66, -39, -5, 51, -28, -86, 77, -51, 14, -7, 24,
    -40, -59, 24, -59, -62, -58, 39, -55, 94, 27, -2, 65, -42, -51, 71, 44,
    -97, 24, 54, -1, -54, 40, 49, -50, -19, -39, -46, -52, 29, 39, 83, -6,
    6, 52, -39, -60, -113, -20, -78, -78, -7, 5, 108, 0, 51, 1, -32, 17,
    23, 51, 67, -37, 24, 70, 38, -3, 83, 43, -53, -29, -60, -84, -85, -64,
    30, 28, 25, -5, -58, 15, 81, -50, 65, -36, -90, -16, 62, -18, -47, -17,
    49, 4, -2, 23, 6, 64, -36, -50, 53, -22, -51, -30, 62, -20, -44, 49,
    -50, -32, 36, -6, 21, -6, -48, 29, 85, -18, 71, 4, -22, 74, 18, 85,
    -53, -24, -62, -55, -68, -64, 78, 17, 81, 50, -17, 100, 99, 40, -24, 84,
    -53, 73, 35, 79, 99, 67, 47, -38, -34, 52, 46, 118, 13, -77, 46, -34,
    -32, 32, 33, -3, -62, -34, 13, -68, 23, 74, -79, 32, -32, 86, -51, 14,
    -55, -58, 13, -17, -74, -75, 43, 72, 9, -67, -70, -48, 46, -47, 77, 26,
    -56, -67, -38, -43, -22, -32, 66, 12, -86, -86, 65, -59, 48, -40, -65, -26,
    45, -64, -53, 68, -27, -65, 48, 76, -40, 40, 23, 71, 64, 69, 23, -64,
    -22, 8, -6, 78, -35, -73, -73, 68, 46, -53, -16, 23, -32, -6, -8, -22,
    -54, -7, 8, -76, 12, -59, 6, -2, -11, -69, -25, -73, -4, 18, -32, -61,
    6, -24, -41, -75, -59, 77, 51, -74, 37, -7, 42, 74, -40, -14, -72, -1,
    37, -8, -34, -64, 20, 8, -35, -32, 51, 56, 16, 36, -58, 85, -84, -66,
    -17, 16, -59, -75, 63, -43, -50, 13, -27, 75, -80, 62, -15, 5, -35, 25,
    32, -79, 10, -56, -62, 76, -30, 16, -58, -57, 67, 82, -39, -26, -51, 35,
    -57, -70, 15, -25, 31, -72, 4, -4, 76, 21, -4, -82, 25, 2, -47, 11,
    -66, 27, -55, 70, 79, 70, -52, 58, 32, 1, -31, 72, -54, -39, -35, -75,
    46, -27, -32, 71, -70, -40, 2, 57, -14, 12, -78, 88, -16, 47, -16, 37,
    39, 51, 83, 12, 18, -50, -87, 17, -15, -11, -55, -50, -60, 67, 59, -72,
    58, -20, -41, 71, 73, -19, -32, 29, 106, -17, 68, -66, -2, -13, -72, -56,
    86, 24, -74, -51, 56, 20, -45, -53, -24, 4, 32, -71, 98, 80, -14, -66,
    -57, 34, 75, -48, 31, -20, -36, -45, 10, 80, -80, 76, 10, 75, 67, 79,
    37, -78, -30, 28, -75, -69, 41, -52, -20, 61, 79, 30, -23, 19, -23, -14,
    -48, 50, -72, -53, 66, -55, 49, 29, 11, -11, -12, 11, 35, 29, 79, -30,
    46, -64, 52, 72, -67, 51, 93, 1, -64, -43, -68, -72, -28, 18, -68, 5,
    62, -67, -28, -22, 62, -40, -28, -24, 26, 75, -37, -18, -61, -54, 57, -37,
    77, 94, -74, 14, -22, -63, 37, -59, -25, 22, -45, -59, 78, 27, -28, -17,
    -27, 45, 6, 24, -41, -81, 66, 9, -15, 49, 72, -76, 4, -58, 20, 11,
    -20, -37, 75, -25, -32, -29, 21, 1, 35, -22, 6, 73, -16, -59, 3, 56,
    -55, 15, 49, -23, -44, 41, -81, 56, -66, 69, -47, 27, 79, -15, 61, 38,
    5, -25, -25, -73, 82, -18, 91, 61, 74, 15, -79, 67, -83, -3, -89, 9,
    -12, 43, -40, 46, 60, -67, -35, 54, -85, 42, 26, -72, -65, -55, -20, 36,
    22, 12, 31, -7, 41, 80, -68, 82, -42, 16, 24, 4, 55, -18, 31, -89,
    110, -34, -40, -52, -12, 7, 2, 46, -21, -64, 28, -43, -86, -2, -72, -14,
    -18, -34, 43, 46, -21, 7, 5, -25, 60, -38, 34, -23, -24, 86, 18, -17,
    -19, -18, 42, 35, 53, 47, -72, -65, -35, -35, -65, 60, -21, 20, 7, 21,
    -11, 23, 40, -44, -41, -72, 3, 73, -66, -53, 42, 15, 46, -85, -59, 41,
    22, -17, -5, -48, 93, -13, 26, 19, -33, 25, 71, -80, -59, -59, -31, 10,
    39, 32, 35, -48, 27, -25, -33, 84, 24, 49, -73, 84, -7, 46, -1, 35,
    -39, 26, -70, -16, -64, 27, -9, -63, 70, -92, 5, -33, -2, 27, -9, 7,
    77, -39, 14, -69, -83, -4, 54, 38, -11, 31, -42, 56, 38, -73, -23, -2,
    -28, -28, -45, -73, -81, 42, -11, -4, 18, -101, -79, -46, 55, -78, 50, -91,
    27, 24, -3, 1, 59, -81, 71, 57, 80, 37, -46, 90, -10, 56, -11, 22,
    85, -23, -45, 57, 90, 4, -72, 8, 94, -9, -72, 10, 53, 62, -58, 12,
    -76, -12, 74, -88, 11, -69, -12, 41, -19, -74, -70, 3, 46, -65, 29, 71,
    85, 55, -75, -51, 29, -92, -81, 11, 4, 48, 13, -53, -16, -58, 56, 5,
    74, 73, 23, -84, -10, -67, -50, 3, 53, -9, 5, -24, 8, -23, -28, 81,
    -23, 20, -11, -5, -74, -15, -82, -66, -49, -54, 50, -38, 39, 31, 33, 43,
    -52, 68, -13, 24, 46, 81, -44, 61, -20, 61, -88, -66, 20, 45, 9, -39,
    8, -46, -10, -32, -12, -66, 23, -35, -14, -60, -45, -51, -51, -44, -69, -52,
    30, 22, 81, -57, -82, 48, -45, -62, -82, 52, 58, 0, -51, -67, -69, 36,
    8, 32, -52, -15, -35, 60, -11, -66, 69, -14, -30, 7, -5, -67, -7, 33,
    -43, 61, -53, -1, -80, 31, -52, 11, 74, -14, -46, -38, -12, -86, 18, 72,
    -15, -5, -15, -11, -81, 55, 13, -88, -72, 46, -53, -39, 45, -63, 44, -53,
    13, -28, -63, 10, -64, 58, 61, 2, -66, 24, 18, 56, -60, -51, -23, 49,
    46, 33, 62, -23, -79, 76, 58, 72, -34, 67, 32, 26, -80, -3, 28, 58,
    50, 8, 57, 86, -17, -92, -12, -92, -23, 16, 1, 7, -80, 38, -3, 74,
    -74, -13, 76, -28, 14, 57, -81, -70, 38, 36, -2, -82, 40, -71, 0, -26,
    48, -32, 15, -58, -48, -59, -52, -41, -42, -74, 32, -32, 54, -39, 47, -84,
    -48, -18, 61, 1, 65, -84, -7, 1, 8, 78, -82, 12, 11, 68, 33, 79,
    -81, 15, 22, 53, 58, -27, -20, -39, 9, -49, -81, 20, -67, 16, 54, -1,
    -5, 26, -49, -16, 75, -49, -68, 82, -55, 21, -52, -81, -63, -56, 97, -71,
    -7, -45, 40, -59, 20, -76, 57, 62, 71, 88, -80, 4, 10, 63, -70, 75,
    36, 63, 27, -10, -31, 44, 67, -8, -44, 17, -72, -53, -89, -40, 81, 35,
    -66, 33, -62, -71, 68, -21, -84, -95, -40, -83, 91, -104, 42, -25, 79, -27,
    8, 94, -68, 37, -63, -51, -81, -84, 21, 55, -28, 23, 69, 48, -83, -56,
    -74, 89, 14, 45, -66, 66, -42, -49, -59, -93, -79, 38, 38, -73, -20, -53,
    -81, -55, 39, 1, 93, -23, 123, 4, -3, -30, -29, 64, 21, -9, 30, 92,
    -61, 43, 94, 11, 57, 21, -5, 25, -28, 46, -74, 73, 40, 24, 74, -16,
    -13, 24, 96, 0, 9, 8, -26, -80, 93, -1, -31, 97, -68, -66, 58, -25,
    13, -33, 8, 61, 62, -89, 49, -58, -98, 35, -49, -61, -62, 12, 10, 68,
    -26, 54, -35, 20, -37, 21, -75, 94, 9, -4, -23, 58, 43, -77, 42, -82,
    42, 27, 2, -74, 59, 45, 48, 87, 3, 74, -46, 49, -58, -63, -27, 34,
    55, 84, -86, 3, 79, 70, -80, 80, 26, 26, -3, 25, -49, -51, -9, -84,
    -88, -24, 13, 65, 59, 12, -19, -59, 83, 35, 28, -25, -95, -76, 77, -61,
    17, 83, -83, 49, 41, 37, 41, 9, -73, -48, 36, 42, 66, 19, -19, 61,
    7, -62, -83, -9, -70, -46, -10, -76, 49, -43, -54, 0, -47, 40, 8, 0,
    -43, 77, -1, -43, 18, -67, -24, -34, -15, 36, 39, -57, 75, -28, -66, -57,
    -61, -10, -57, 49, -40, 9, -82, -67, 43, 29, 40, -4, -41, -33, -38, 0,
    -65, -14, -23, -22, 75, -61, -38, -85, -41, 7, 31, -19, -13, -13, -32, 41,
    -62, 83, 10, 45, -8, -16, 31, -3, 12, 75, 43, 64, -75, -15, -64, 82,
    -81, 82, -36, -52, -69, -8, -58, -59, -32, 9, 79, 27, 49, 8, -70, 66,
    -59, 43, 71, -45, -67, -22, -85, 27, 45, 35, 55, -3, -39, -26, 50, 37,
    -73, 48, 19, 41, -82, -76, 18, -41, -75, -41, -74, -1, 8, 24, 54, -26,
    60, 4, -35, -54, 22, -14, -83, -76, 68, -41, 17, 18, -34, 26, -78, -74,
    51, -48, 27, 78, 8, 43, 48, -31, 96, -8, 28, -52, -4, -38, 4, 84,
    -13, 66, -85, -93, -51, 71, 4, -58, 19, 17, 6, -46, 5, 54, -68, -67,
    -21, -85, -87, -5, 64, 34, 56, 61, 93, -4, 54, 48, 2, -27, -57, 78,
    52, 9, -56, 80, 68, -5, -10, -26, -2, -30, -52, 51, 80, 47, 35, -3,
    -28, 50, -58, 76, -64, 76, -40, -22, 69, 18, 37, 1, -73, 70, -6, -42,
    25, 23, -40, -33, 8, 20, 61, 16, -79, 15, -85, -11, -20, 82, 94, -34,
    80, 10, -52, -80, -38, 67, -36, 23, 23, -47, -47, -1, 27, 48, 63, -9,
    -76, 38, -87, 74, -68, 72, 7, -54, 72, 77, 61, -71, 27, 70, 25, 47,
    -52, 30, 68, 76, -83, -22, 29, -80, 11, 50, -39, 48, -79, -55, -54, 44,
    61, -73, -26, 28, 16, -13, -1, 13, 87, 53, 76, 57, -67, 3, -55, -26,
    -14, 37, 32, -44, 48, -31, -42, -5, 59, -5, -67, -45, -38, -20, -73, -74,
    -37, 9, -75, 24, 25, -58, -13, 53, -51, 30, 71, -74, -78, -13, 85, 1,
    -8, 32, 76, 54, 55, -12, -30, 17, 59, 73, -31, 85, -41, 80, -50, 70,
    -67, -41, 14, -65, -24, 16, 39, 1, 9, -60, -11, 26, -68, -44, 75, -43,
    77, -13, 29, 15, 65, 17, -42, -7, 4, -76, -24, -45, 5, 23, 39, -34,
    -69, 20, -81, 34, 84, -39, -84, 74, 3, 34, 40, -75, -34, 18, -36, -75,
    -36, -80, -74, -77, 31, 35, 37, 36, 72, 104, 28, 51, -18, 18, -12, 76,
    91, 22, -42, 55, -36, -56, 13, 39, 29, 36, -69, 80, 11, 72, -45, -64,
    -69, -12, -11, 83, -24, -73, -31, 2, -58, 25, 48, -46, 46, 3, 12, -31,
    -43, -27, 29, 9, -29, -36, -71, 36, -8, -67, -77, -80, 79, -83, 94, -59,
    -63, 46, -72, 53, -16, 60, -5, -1, 6, -63, -14, -19, -47, 65, -68, 82,
    -14, 54, -30, -83, -84, -62, 3, 49, -78, -45, -75, 33, -16, 68, -76, -40,
    71, -2, -57, 28, 67, 37, 1, -81, 48, 72, -61, 45, 14, 57, 38, 84,
    7, 55, -65, 22, 48, -32, -44, -61, 27, -38, -62, -34, -76, -71, -70, -60,
    -35, -61, 28, -64, 61, -75, 45, -38, -78, -70, -85, 13, -77, -21, 22, -41,
    9, -31, -76, -70, -34, -40, 79, -77, -14, -68, -35, -40, -62, -33, 56, 60,
    66, 60, 53, -79, -13, -16, 48, 53, -66, 0, -50, -59, 86, -13, 66, -59,
    -84, 8, 55, -83, -47, -54, -40, -74, 33, 46, -4, -49, 47, -6, 63, 7,
    -23, 73, -26, 73, 87, -34, 32, 16, 78, -71, 36, -67, 13, 5, -34, -37,
    -46, -44, -2, -13, -51, 20, -1, -90, 89, -44, 52, 37, -27, 30, -82, -71,
    -76, -72, 73, 71, -51, -42, -63, -29, 68, -73, 8, 29, -91, 52, 37, -46,
    76, 42, -69, 50, -34, 88, -2, 78, 77, -43, -54, 53, 89, 64, -33, -48,
    -93, -36, 89, -48, -13, 19, 34, -56, 28, -100, 33, 36, -33, 32, 13, 28,
    -52, -15, -75, 15, 78, -25, -74, -50, 33, -62, 50, 16, 8, 1, -73, 7,
    23, -47, 13, -59, 21, 49, 59, 56, 43, -88, 3, 22, 75, -73, -19, -66,
    -9, 40, -78, -63, -2, 27, -43, 30, -32, -48, 59, -56, 50, 48, -76, 70,
    -53, -12, -77, 66, -6, 5, -75, 54, -45, 82, 11, -31, 5, 53, -40, -55,
    -82, -65, 34, -11, 56, -24, -12, -82, -27, -67, -6, 49, -54, 73, 18, -5,
    17, 67, 3, 39, 11, -33, -41, 72, 57, -1, -4, 0, -36, 36, 76, 16,
    22, -39, -74, 4, -16, -51, 66, -86, 84, -39, -74, -63, 57, -80, -84, 69,
    42, -83, 70, -73, 3, -58, -63, -73, -56, -67, 71, -11, -65, 43, 32, -32,
    -28, 80, -80, -80, -20, -62, -14, -25, -21, 26, 22, -35, -60, -28, 36, -69,
    16, -13, -16, -46, -27, -62, 30, 26, 6, -26, 37, 46, 3, 23, 16, -17,
    1, 22, -76, -15, 76, 2, 33, -34, 60, -77, 15, -85, -67, -15, -67, 72,
    15, 63, 24, -90, 57, -68, 8, 56, -19, -76, 78, 48, -56, -6, 76, -51,
    -73, -72, 3, -63, 66, 61, -8, -14, -33, 77, -51, 31, 14, 22, 50, -83,
    7, -30, -61, 45, 4, -70, 94, -59, -58, 5, -38, -5, 14, 30, 16, 27,
    89, -37, 36, 32, 43, 25, 20, -57, -122, 21, 83, -86, -26, -22, 2, 10,
    74, 35, -6, 64, 67, -29, -31, 83, -51, 75, -69, -9, 68, 22, 5, 47,
    66, 37, -28, 15, 21, 73, 65, 79, -42, 14, -83, 33, -60, 18, 12, 83,
    -71, 31, 20, 63, 67, -94, -36, 6, -9, 21, -31, 1, -56, 28, -90, -29,
    4, -7, 66, -22, -55, 32, 72, 13, 4, -69, 72, -12, 71, 67, 37, -76,
    -15, -96, -78, -47, -84, 15, -68, 69, -18, -25, 41, -78, -82, 45, -8, 5,
    76, -55, -24, 18, 79, -38, 63, 2, -17, -54, -12, -21, 12, -5, -7, 56,
    4, 51, 33, -40, 20, -84, -26, 96, 6, 73, -82, -4, -81, -76, 28, 11,
    -26, 38, 24, 67, -72, -41, -20, 9, -34, 67, -40, 48, -49, 7, 56, 56,
    8, 54, 50, 64, -95, -5, 72, -79, -47, 77, 55, 53, -50, 82, 26, -11,
    -5, 55, -76, -61, -64, -14, -51, 54, 55, 4, 53, 47, 39, 71, -36, -62,
    43, -26, 83, -85, -63, -75, 93, -21, -26, 9, -74, 9, 51, 61, -26, 26,
    23, -55, 15, -63, -58, -59, -12, 42, 53, 62, -10, 4, 75, 45, 46, 19,
    -20, 23, -4, -28, -18, 75, 32, -41, 70, -89, -62, -3, -88, -63, 75, 58,
    -43, 75, 43, 63, -73, 10, -14, 83, 12, 81, 8, -18, 40, -55, 60, -63,
    -25, 15, 54, -57, -45, -38, 85, -34, 18, -39, 43, 20, -24, 33, -21, 71,
    48, -33, -50, 63, -23, 52, -74, -67, 17, -27, -4, -24, 81, 33, 59, -69,
    82, -73, 22, 87, -5, 40, -34, 60, 67, 62, 48, 55, -47, -50, -77, -22,
    10, 2, 69, 43, 2, 77, -43, 7, 78, 67, -60, -5, -23, 42, 15, 13,
    -24, 28, 18, 64, -52, 62, 21, -79, -82, -13, 92, -74, 33, 42, 14, 83,
    -17, 27, -59, -8, -20, 65, -84, 61, -59, -72, 2, 78, -84, -69, 29, -77,
    76, 52, 64, -65, 63, 74, -40, 46, -24, -70, -87, -16, 1, -21, 77, -76,
    61, -46, -78, -44, 4, -41, 3, -23, -5, -3, 46, -6, -13, 64, 53, -83,
    -50, -36, -24, 64, -77, -12, 45, 70, -36, 49, -58, -3, -64, 82, -64, -22,
    83, -40, 91, 54, 8, 48, -100, 12, 80, -49, -31, 0, 33, 11, -72, 8,
    -16, -66, 33, 27, 21, -79, 44, -68, -21, -6, -20, -43, 32, 92, 56, 3,
    74, -2, 43, -66, -42, -29, -51, -81, 30, 51, -91, -83, 44, -40, -68, -39,
    -43, -57, 38, -12, 3, 61, 50, 83, -55, -24, 25, 62, -25, 10, 4, 76,
    -86, -60, -56, -50, 1, -4, -40, -40, 13, 1, 75, 12, -15, 29, -7, 18,
    9, -22, -49, -85, -21, -81, -31, 8, 34, 22, 46, -42, 79, -93, 1, 33,
    20, 22, 46, 4, 71, 53, 74, -52, 66, -75, -89, -8, 19, 44, -48, -49,
    -5, 73, -37, -47, 19, -35, -21, 16, 102, -34, 44, -86, -10, 82, 75, 53,
    31, -76, 30, 86, -50, 36, 70, 66, 27, -28, -19, 82, 40, 38, -76, -55,
    23, -37, 0, 17, -31, -79, -68, 27, -62, 46, -13, -22, 69, -44, -65, 55,
    73, 42, -72, -64, 25, 81, -73, 11, -32, -61, 81, -15, 7, -65, -84, -50,
    91, -59, 39, 67, -78, 43, 11, -35, 12, -17, -36, 2, -29, 18, -60, 36,
    24, -19, -63, -30, 20, 25, 41, 27, 62, 9, 66, -27, -15, 37, -57, -3,
    11, -47, -41, -23, 72, -18, 75, 0, 13, 36, -39, -8, -56, -1, 49, 22,
    66, -90, -54, 86, 67, -36, -10, -4, 3, -17, 22, -56, -69, 61, -72, -72,
    -30, -83, 25, -27, 59, -80, 52, 15, 60, -70, 53, -56, -26, -13, -72, -27,
    -71, 41, 4, 51, 3, 55, 13, -61, -79, 36, -35, -65, -47, 11, 37, 71,
    -45, 0, -86, 16, -41, -50, 37, 38, 27, -70, 31, 77, -8, -11, -58, 20,
    -59, -42, -16, -34, 46, -15, -45, -34, 79, -4, 52, -9, 71, -27, 5, -4,
    40, 0, -57, 14, 38, -86, -46, 36, -80, 50, 56, 68, -45, 76, 51, -38,
    -43, -23, 108, -33, 37, -8, 18, 34, 4, -64, 67, -62, -33, 53, -76, 40,
    6, 83, -60, 33, 58, -15, -13, -24, 21, -34, 19, -48, -10, 57, 63, 76,
    62, -78, -85, -18, 25, -20, -54, 20, -88, -50, -48, -34, -61, 26, 55, 84,
    44, 57, -67, 48, 40, -58, -54, 39, 19, 85, -18, -81, -42, 77, 4, -42,
    -70, -67, 27, 22, -11, 45, -67, 61, 23, -51, -85, -54, 58, 49, -21, -19,
    -16, 7, 54, -13, 41, 65, 63, 23, -10, -48, -81, -32, 30, -18, 39, 37,
    -34, -29, -6, -61, 38, -42, 34, -64, 86, -14, 19, -34, -50, 63, -53, 75,
    -78, 93, -79, 52, 6, -14, 9, -3, 61, -48, 56, 2, 48, 30, 66, -88,
    -75, 32, 9, -56, 72, -23, 5, -51, 72, -71, 66, 12, -67, -60, 45, -61,
    -20, -36, 58, 32, 79, 11, 18, 38, 3, -29, -2, 5, 20, -4, -84, 23,
    -25, 42, 35, 41, -20, 19, 83, -31, 5, -72, 23, -26, -34, -90, 82, 84,
    -64, -49, -81, 84, 24, -33, 82, 66, 54, -80, -9, -59, -89, 9, -47, -9,
    -6, -3, -17, -78, 74, -85, -27, 15, -8, -20, -4, 69, 24, 18, 44, -9,
    35, 44, -77, 27, -88, 58, 69, 75, -90, 25, -6, -77, -28, 10, 5, 33,
    19, 49, -11, 46, 68, -43, 50, -3, -19, 51, -6, -15, 18, -24, 19, -54,
    -24, -1, -74, 88, 75, 58, 64, 82, -13, -62, 1, -83, -3, 60, 55, 1,
    -74, 69, 72, -11, -99, -5, 70, -4, -85, 10, -27, -13, 64, 15, -55, -42,
    80, 19, 25, 85, 13, -5, -34, -72, -76, -27, 86, 39, 12, -1, 32, -5,
    77, -41, -80, 40, 51, 30, -71, -22, -21, 5, -64, 48, 12, 46, 11, 55,
    62, 13, 6, -77, -27, -35, -67, 8, 12, 4, 78, -34, 3, 7, 49, 2,
    -46, -61, -38, -52, -47, 72, 82, 34, 49, -60, -41, 55, 78, 50, -51, 70,
    -18, -11, 82, 89, 18, 41, -11, 55, -6, -9, -58, 4, 13, -38, 26, -53,
    -68, 0, 81, -19, -32, -74, -26, -2, -64, 46, -41, -30, -1, 63, 17, -3,
    -71, -24, -27, 36, 7, 69, 10, 53, -28, 90, 21, 24, -86, -46, -20, 70,
    -8, -6, 59, -39, 70, 23, 53, -65, -7, 33, -71, 25, 82, -7, -68, -52,
    -46, 6, 46, -78, -33, 18, -63, 127, -82, 11, -85, -15, -74, 4, 49, 99,
    -52, -37, 2, 1, -41, -33, 38, 66, 76, -71, 0, 35, 34, -25, 6, 37,
    -20, -40, 63, 5, -71, 75, 77, -46, 46, -67, 10, 28, 59, 21, 7, 17,
    9, 26, -67, 74, -79, -4, 75, 59, -87, -11, -83, -25, 78, 5, 0, -75,
    0, 44, -19, -32, -34, -2, -70, 12, 18, 0, 74, 17, 3, 78, -63, 15,
    51, -28, -3, -12, 29, -92, -17, 71, 67, 60, 47, -67, -9, -44, -14, -68,
    77, -70, -17, -60, -1, 7, 59, 73, 6, -32, 7, -46, 48, -84, 40, 51,
    30, 59, 40, 66, -24, 65, -61, -65, 11, 59, -97, 7, -1, 66, -62, 52,
    -23, 44, -9, -93, 18, -30, 34, -8, 4, -59, 30, 67, 73, 12, 5, -43,
    -73, -22, -82, 1, -75, -38, 19, -14, -10, -42, -53, -23, 28, 23, -23, -29,
    -38, 45, 10, -34, -43, -75, -65, 60, 51, -68, 73, 13, 84, 28, 35, -19,
    -32, 38, -48, -15, -58, -17, 57, -84, -8, -65, 59, 28, -60, -85, 49, 22,
    -12, 51, 25, -85, 60, -26, 19, -29, -67, -18, -102, -16, 87, 52, -89, 29,
    -22, 81, -65, -65, 55, -76, -51, -83, 33, 73, 64, 78, -55, -1, -26, -77,
    20, -33, 14, -47, 39, -69, -68, -32, -24, 94, 40, -45, 7, -55, 78, 13,
    -83, 64, 74, 72, 14, -30, 72, -71, 25, -73, 83, 52, 42, 77, -13, -5,
    -63, -88, -2, -81, 64, 26, -63, 34, -12, -49, -12, -72, 12, -10, -3, 82,
    35, -32, -69, -72, -83, -36, -42, 79, -45, 40, 57, 85, -51, 73, -29, -54,
    -29, -8, -9, 57, 65, -68, -59, -9, 65, 51, -75, -28, -34, -30, 44, 74,
    50, -84, 65, -31, -61, -45, 78, 95, 49, 6, -12, -25, 59, 5, 44, 19,
    44, -69, 35, 15, -5, -24, -43, 45, 85, -79, -35, 47, -74, 49, 55, 33,
    -23, -38, 45, 67, -10, -20, 14, -30, 38, -24, -82, 80, -55, -66, -50, 84,
    -15, 67, -9, -12, -47, 15, 28, -84, 66, 62, 57, 55, -66, -54, -14, -39,
    44, 33, 72, -23, 49, -54, -48, -32, 38, 29, 5, -82, -37, -28, -44, 53,
    -84, 72, 45, -81, -2, 19, -55, 44, -45, 81, -23, 39, 42, 80, 9, 17,
    29, 27, 4, -78, 3, -63, 23, -73, 38, 55, 52, 66, -21, -60, -41, 20,
    60, 1, -79, -77, 15, 24, -32, -36, 42, -62, -55, -67, -76, 66, 69, 40,
    53, -23, 13, -78, 37, 5, -29, -62, 89, 52, -59, -1, -32, -74, -16, -76,
    -73, -1, 68, 78, 59, 69, 80, -14, -22, -76, -51, 60, -27, -43, -28, -1,
    2, -90, 82, -70, 9, 62, -38, -62, -24, -12, 79, 53, -52, 20, -21, -41,
    -27, 13, -57, -67, -18, -59, -42, 26, 44, -44, 17, -4, 86, 76, 51, -70,
    -41, 4, -8, -16, -61, 67, -66, 45, -73, 18, -9, -77, 46, -87, -1, -23,
    -67, 5, 21, 75, -84, -77, -7, 8, -79, -26, -14, -34, 93, -66, -46, -20,
    27, -41, 86, -25, -59, -27, -60, -9, 60, 82, 79, -24, 31, -56, -52, 57,
    67, -50, 39, -26, -12, 2, 12, 3, 96, -49, -34, -80, -5, -14, 77, -71,
    -1, 39, -93, 44, 14, 43, 21, 11, -2, 70, 23, 59, -15, -36, -61, -90,
    -45, -80, 66, 2, 25, -80, -64, 86, 32, 4, 18, -24, -85, -12, -23, 7,
    17, -40, 26, -12, -49, -34, -63, -53, 49, 8, -43, 0, 60, -5, 82, -16,
    41, 35, -29, 11, -2, -63, -87, -26, 4, 53, -23, -4, -73, 37, 33, 29,
    8, 50, -75, 54, 70, -57, -3, 74, -51, 45, -32, 41, -12, 62, -21, 63,
    31, -66, -31, 42, -56, 6, -9, 63, 17, -43, -60, 26, 64, -30, -3, 44,
    17, 71, -47, -13, -49, -85, -80, 53, 18, -3, 14, 38, 34, 58, -13, -24,
    37, 55, 50, 75, -88, -66, -83, -31, 76, -25, -83, -60, -37, 46, 69, 7,
    68, -21, 68, -38, 43, 43, 17, 59, 50, 79, -55, -27, 67, -19, 78, 22,
    -62, -3, -33, 10, -44, -53, -56, 34, 1, 48, 18, 15, 47, -51, -70, -25,
    64, -58, 40, -58, 13, 47, 72, 37, 0, 24, 69, 59, -37, -30, -26, -40,
    19, 83, -79, 68, 30, -1, -13, 23, -46, -86, 25, -61, -68, -36, 85, 34,
    58, -22, -52, -54, -37, 78, 1, -68, 45, 45, -40, 79, 67, 38, 82, 35,
    42, 50, 50, 26, -75, 49, 14, -6, -73, 51, 8, -11, 43, 29, -55, 29,
    -38, 55, 16, 15, -26, -47, -7, -35, 12, -3, -25, -81, -95, -2, 86, 3,
    82, 38, -61, -29, -90, 27, 0, -91, 63, 29, -75, -27, 18, -2, 8, -31,
    34, -80, 10, -55, -34, -16, -43, -30, 61, -36, -71, 80, 5, -65, 13, -4,
    -24, -31, -78, 85, -15, -44, 20, 36, 13, 17, -26, -14, 40, 8, 19, 48,
    35, -71, -58, 70, -29, -32, -2, -36, -3, 77, -69, 83, 38, -40, -64, -29,
    54, 25, -48, -6, -20, 45, -43, 88, 3, 6, -83, -27, 51, 61, 13, 18,
    63, 73, 77, -19, 107, -46, 21, 32, 72, 15, -42, -71, 68, -6, 73, -43,
    -55, -42, 81, 15, 36, 5, -71, -29, 31, -27, -23, -83, -13, -45, 8, -29,
    -34, -34, -24, 49, -85, 50, -13, -12, -8, 50, -28, 36, -47, 25, 25, 23,
    -65, 21, -13, -50, 101, 22, -33, 39, 26, -37, -79, -39, -71, -51, -64, 42,
    77, 82, 16, -55, 44, 78, -28, 19, -18, 30, 31, 56, -54, -57, -42, -48,
    -41, 10, 78, -4, 62, 35, -25, 104, -40, 30, 22, -4, -69, -88, -11, 64,
    71, 15, -17, -55, 43, 53, 6, -38, -68, 74, 67, 67, 75, 7, 88, -70,
    12, 39, 35, -65, -17, -28, 40, -1, 52, -86, -14, 84, -58, -83, -53, 31,
    77, 66, -68, 19, -23, 33, -36, -15, 96, -62, 66, -41, -18, 59, 42, 72,
    15, 11, -47, -50, 78, -9, 51, 64, 104, -20, 66, 52, 43, -83, 3, 82,
    15, -21, 31, 50, -64, -22, 35, -62, -74, 27, -27, -34, 24, 81, -71, -83,
    -72, -18, 63, 8, -12, 10, -60, 66, -19, 1, -39, -52, 18, 83, -12, -58,
    45, 87, 24, 52, -24, -59, -1, 49, -55, -7, 10, 4, 24, 67, -74, -20,
    -9, 72, 31, 66, -72, -73, -38, 2, 38, 25, -70, 49, 74, -85, 79, -77,
    75, 35, -81, 32, 31, -72, 72, -34, -72, 23, 14, 56, 74, 28, -69, -21,
    -10, -82, -50, -41, -9, 81, -26, 38, 58, 49, -21, 17, 19, -46, -21, 29,
    -17, -1, 11, 70, -63, 33, -25, -68, 53, 15, 41, 31, -44, 21, 61, 42,
    -50, -62, 69, 42, -93, -91, 75, -67, 48, -14, 40, -71, 92, 88, -17, -16,
    106, -55, 57, -36, 86, 52, 35, 24, 63, -63, -31, -88, 39, 11, -26, 8,
    -51, 103, 60, -27, 32, 29, -33, -18, -15, 48, -69, 12, 17, -77, 28, -79,
    -20, -58, 84, -85, 99, -66, 29, 92, 56, 19, -45, -82, 24, 54, 35, 70,
    1, 5, -43, -23, 74, 40, -78, 28, 40, -87, -57, 52, -84, 10, -15, -23,
    59, -43, -41, 52, -33, 44, -24, 82, -81, 58, 43, -59, -73, -85, 70, -18,
    -61, -33, 18, 42, 84, -23, -21, -5, 2, 50, -73, -53, 28, -16, -55, 67,
    70, 12, 62, 66, 10, 39, 32, 64, -75, -34, 32, 70, 28, -67, -79, 9,
    72, 1, 17, -61, 74, -34, -28, 95, -34, -15, -53, 73, 82, 25, -75, -91,
    30, -11, -13, -79, 30, 68, -45, -17, -40, 86, 58, 74, 45, -74, -5, -25,
    2, -15, 29, -1, -18, 30, 66, -32, -42, -81, -12, -16, -19, 6, 26, -10,
    28, -61, -18, -17, -4, 60, -16, 11, -25, -69, 10, 82, -9, -14, -24, -52,
    55, 27, -69, -43, -81, -26, -64, 1, -43, -83, 74, -81, 82, -1, -26, 57,
    -4, 18, 46, 57, -8, 22, 10, 50, 43, -77, -7, 37, -37, 33, -66, -20,
    -56, -74, -66, -68, 64, -67, 48, -25, 30, -82, 29, 56, 75, 76, 8, -41,
    -43, 82, -76, 85, -82, 78, -23, -12, -55, -42, -67, -48, -10, 60, 76, 16,
    -65, -43, 38, 1, 23, -47, 33, -79, 73, -76, -29, -36, -76, 5, -35, 10,
    14, -34, -60, 6, -58, -69, 47, 19, -28, -33, 71, -48, 51, -77, 42, 14,
    26, 25, -71, 76, 1, -25, -83, 23, 29, 44, 52, 10, -58, -55, -6, 24,
    36, 6, 27, 16, -65, -27, 18, 52, 37, -24, 39, -57, 33, -20, -49, -2,
    -66, 2, -40, 43, 4, -14, 25, 12, 62, -39, 37, -49, -51, -40, 57, 65,
    79, 28, -53, -34, 58, -26, 21, 9, -18, 73, 80, -77, -8, -10, 61, 19,
    4, 52, -23, -20, 83, 60, -70, -58, -57, -58, -52, 41, -80, 78, -49, 27,
    -39, 38, 53, -22, 13, 18, 66, -54, -3, -77, 80, -46, -71, -44, -39, -45,
    86, -41, 65, -51, -51, -4, 33, 47, 39, -68, 13, 73, 28, -15, 23, -25,
    69, 19, 38, 11, -45, 38, -2, -87, 61, 24, -18, 7, 17, -33, -53, 65,
    -21, 63, -78, 15, 57, -4, 48, -70, 15, -65, 16, 19, -54, -63, -25, -11,
    -77, -14, 32, 59, -61, -74, 34, -35, 67, -21, -5, -44, -56, -20, -33, 63,
    -59, 35, -19, 84, -85, -81, -49, 55, 48, 46, -31, -43, -37, 76, -6, 18,
    0, -31, 82, -19, -42, 66, 79, -11, 71, 27, 5, -26, 10, 41, 15, 18,
    18, 18, 30, -19, -15, -84, -27, -35, 85, -53, -32, 52, -27, -68, 24, -73,
    14, 73, -64, 20, 26, 61, -16, 43, -77, -17, 20, 61, -16, -41, -38, -5,
    -11, 56, -9, -29, -5, 54, 38, -40, -24, -20, -29, -21, 0, -58, -71, 24,
    9, -15, -43, 72, -59, 82, -47, 22, -14, -34, -52, -5, 3, -46, -66, -22,
    38, 8, -57, 27, -56, -32, 6, -31, 83, -39, 82, -45, -40, -87, 31, 69,
    71, -46, 45, -59, 82, -61, -18, 5, -4, -53, 29, -77, -1, -46, -12, 25,
    -19, 23, -73, -14, -19, 16, 12, 75, 80, 5, -44, -7, 79, 17, -77, -4,
    -71, -72, -39, -79, 69, 43, 79, -58, -64, 17, 69, 54, -37, 43, -76, -78,
    -72, -53, -63, 39, -29, 16, 3, 61, 7, 3, 9, 75, -26, -52, 13, -83,
    53, -10, 34, -83, -17, -74, 55, 56, 8, -45, -51, -52, -20, -7, 34, -12,
    57, -27, -78, 60, -72, -31, 40, 14, -10, -19, -64, -55, -67, 31, 65, 9,
    0, -35, 79, -50, -1, 38, 69, 69, 81, 86, 30, 8, -50, 19, -26, 13,
    11, -29, 85, -72, -9, 1, -44, -53, 19, 52, -4, -68, -62, 53, 11, -85,
    97, -55, 32, 45, -16, 16, 86, -53, -14, 52, -65, 78, 29, 5, 65, 55,
    40, -24, 67, -22, 56, -34, -86, 40, -12, 23, -1, -43, -18, -1, -41, 7,
    -67, -77, 33, -53, 76, 75, 61, 80, 81, 46, 14, -86, 0, 37, 37, 81,
    28, -36, 83, -1, 100, 15, 32, -61, 38, -22, -10, -42, -74, -83, -20, -38,
    22, 22, -85, 84, -22, -82, -10, -44, 31, -75, -3, 37, -21, -63, 28, 7,
    6, -41, -96, -3, 45, 51, -99, 78, 50, -76, 37, 12, 15, 26, -7, -58,
    60, -59, 75, 37, -44, 76, -30, 2, 10, 26, 4, -2, 27, -37, -3, -39,
    52, 84, 71, -4, -72, 6, 29, -34, -84, -14, 38, 79, 76, 75, -18, -85,
    -86, 15, 39, -19, 52, -61, -26, 11, 13, -91, -20, -50, -62, 54, 16, -36,
    58, -12, -18, 13, -67, -69, 8, 45, -11, 66, 65, -47, -24, 74, 66, -23,
    -16, 11, 25, -37, -90, -32, -71, 81, -48, -34, 1, -81, 6, -14, -6, 29,
    52, 9, -55, 22, 3, 17, 33, -19, -8, -71, 35, -44, -65, -31, -48, -71,
    -40, -51, 24, 47, -85, 9, -79, 61, -57, -58, -80, -46, -2, 46, 70, -18,
    72, 55, -8, -8, -76, -63, -77, -14, 14, 81, 81, 7, 8, -50, 32, -54,
    -26, -34, -52, -33, 7, -22, 39, -80, -34, -39, -35, 39, 84, 42, -1, 23,
    5, -65, -16, -43, 2, 28, 46, 69, -80, 71, -21, 14, 42, 50, -86, -25,
    48, 74, 14, -33, -38, 22, 12, 17, -21, -85, -3, -29, -71, -34, -58, -31,
    -41, 64, -51, -46, 87, 6, 95, -42, 45, 16, -56, -62, 68, -34, -24, 60,
    -51, 0, -47, -2, 31, 71, -33, -61, -40, -38, 9, -18, 43, 36, 27, 8,
    -5, 40, 65, 75, -65, 45, -79, 56, 12, 16, 66, 52, -95, 74, -31, -5,
    90, -9, 74, -57, 9, -4, -40, 63, 33, -4, 25, -28, -13, -84, -78, -54,
    4, -12, 48, -33, -99, 34, -68, 31, -39, 33, -5, 45, 1, 39, 42, 98,
    -73, 44, 43, -79, -10, -85, 59, -88, -66, -72, -9, 78, 8, -21, -18, 20,
    10, 75, 3, 81, -10, -52, 43, 35, -19, -9, -74, 9, 79, -76, 63, 34,
    -52, 47, 50, -4, -75, 51, -65, 38, 45, 18, 79, 17, -9, -22, -57, -40,
    42, -28, -6, -53, 26, 98, 67, 90, 79, -66, 86, 27, -40, 8, -42, 62,
    20, -55, -33, -47, -66, 77, 53, -24, -21, 62, 50, -42, -49, 15, 53, -15,
    0, 53, -45, -71, 82, -56, -34, -76, -35, 86, 41, -10, -35, 48, -24, -14,
    -47, -38, -11, -5, -20, 66, 58, -74, 22, 32, 3, -81, 72, 80, -34, -25,
    -88, -92, -72, 73, 37, 69, -80, 72, -7, -68, -53, 75, 42, -9, -61, 6,
    80, -62, -75, 42, 79, 24, -15, 23, 31, 61, -54, -60, -44, -47, -70, -8,
    51, -46, 27, -85, -3, -63, 45, -53, -8, -36, 77, -85, -1, -34, 44, -50,
    -48, -15, -66, -46, 72, -71, 18, 51, -59, 29, 68, 6, 66, 56, -39, 80,
    75, 44, -35, -36, 23, -64, 65, -41, 11, -35, -30, 10, -69, -7, -45, 71,
    -39, -56, -2, -59, -3, -36, 20, 31, 76, 0, 88, -29, -45, -28, 4, 43,
    -9, -79, -97, -67, -68, 47, -80, -74, -35, -10, 79, -18, -12, -58, 68, -49,
    -59, 42, -77, -85, -21, 56, -21, 30, 66, 18, 45, 76, -70, -23, -23, 43,
    79, 59, 32, -45, 66, 8, -52, 69, 57, 16, -83, -28, -34, -55, -33, -86,
    12, -20, -83, 73, -2, -34, 5, -72, 23, -27, 65, 74, 33, -5, 6, 11,
    -40, -80, 78, 67, 4, 39, -15, -47, 11, 62, 38, 73, -58, 82, 85, -2,
    -86, -27, 72, 74, -25, -41, -81, -6, -81, -23, 61, -24, 13, -21, 44, 27,
    -52, 11, 29, -67, -37, -32, -29, -30, -19, 5, 69, -63, 41, -61, 51, -82,
    62, -22, 29, 76, -20, -51, 79, 5, -5, 47, -5, 34, -49, 62, 53, 34,
    -69, 30, -28, -30, -53, -65, 52, 17, 19, -2, -69, 6, 27, -6, -59, -17,
    -76, -75, 47, 61, 68, -27, -44, -56, 35, -86, 69, 40, 46, 75, -56, 69,
    45, 78, -78, -27, -46, 48, 53, 47, -27, 41, 2, -62, 19, -77, -1, -4,
    62, -70, 85, -79, -59, 77, -67, 13, 68, -52, -77, -31, 47, -23, 71, -63,
    -21, -65, 61, -33, -45, 15, -31, -20, -2, -20, -45, 30, -9, 15, -76, 33,
    -53, -54, 38, 15, -14, -62, -69, -20, -38, 43, -49, -42, -8, -6, 5, -64,
    99, 61, -63, 17, 77, -77, 59, 21, 47, -19, 23, -19, 4, 84, -72, 27,
    -73, 15, 45, 73, 52, -14, 34, -30, 58, 75, -30, -36, 47, 64, 6, 20,
    -8, -59, 67, 12, 41, -26, -79, -2, 41, 1, 9, -20, -6, 33, -12, -31,
    -48, 28, -16, 74, -29, 68, 94, 83, 6, 10, 55, -45, 55, 82, -69, -9,
    -84, 65, -64, 35, -53, 11, 83, 51, 35, 15, -5, -60, 47, 19, -60, -38,
    71, 26, 48, -39, 67, 52, 68, 93, 61, 49, -14, -36, 104, 33, -75, -15,
    73, 52, 44, 56, -81, 64, 4, 37, -65, 20, -11, -73, -23, 97, 94, 35,
    39, 4, 79, 37, -89, 17, 71, 66, -49, -49, 28, 29, 83, -76, -63, 50,
    -64, -61, 22, -66, -49, 52, -38, -80, -57, 55, -24, -25, -63, 64, 52, 73,
    -12, 26, 34, 74, 1, 61, 12, -32, -81, -46, -74, -23, 14, -76, -72, 48,
    -74, -1, 87, -6, 64, -103, -25, 49, 66, 30, 90, -12, 33, 38, 81, -94,
    -70, 67, -81, 82, 80, -25, 16, -25, 24, 77, 94, 87, 35, 10, -3, 18,
    49, -91, -79, 17, 8, -39, 70, -22, -19, 14, 107, 54, 12, -13, 10, -43,
    -38, -34, -32, -26, -62, 26, -2, 43, -38, 59, 65, 7, -25, 61, -59, -12,
    19, 51, 44, -53, 12, -86, 79, 61, -9, 56, -2, 51, -50, 26, 109, -35,
    2, 83, 10, -62, -25, -28, 1, 42, 67, -14, 17, -70, 94, 39, 13, -13,
    95, -90, 25, -37, -32, -59, -92, -58, 6, 35, -74, 15, -67, -37, -60, -32,
    89, 30, -68, 70, 71, 55, -47, -49, -14, -73, -44, -21, -50, -3, 14, 40,
    -19, 0, 96, 4, 104, -48, 88, 6, 53, -14, 15, 11, 40, -74, 68, 9,
    44, -18, 49, -97, 16, -20, -90, -29, -5, -25, 0, -99, -86, -75, 63, -37,
    -37, -31, -29, -71, 93, -61, -89, 19, -21, -59, 81, -35, -43, 68, 8, 29,
    27, 24, -2, 41, 76, -45, 24, 17, -6, -99, -79, -64, -23, 6, -45, 64,
    -24, -9, -38, -16, -19, 25, 30, -90, -48, -85, -68, -35, -59, 88, -20, -50,
    -29, 34, 69, -33, 46, 46, -14, -32, 5, 64, 44, -81, 62, 1, 60, 35,
    57, 21, 20, 27, 62, 41, -77, -53, 12, 33, -13, -86, 12, 29, 24, 39,
    -15, 5, -63, 27, 13, 22, -61, 86, 2, -92, -29, 34, 78, 17, -8, 44,
    -44, 64, 37, 67, -21, -6, 71, 29, -33, -21, 45, -75, 34, -2, -17, 49,
    -10, -72, -47, 17, 67, -82, 41, -29, 49, 74, -65, 51, 1, -34, 39, 45,
    95, -57, -69, -1, 56, -82, 80, -62, -9, -13, 2, -98, -22, -48, 61, -19,
    6, 6, 53, 79, -72, 9, 10, 81, -50, 24, -59, 69, 8, 11, 9, 58,
    -14, 74, 20, -49, -31, -58, 2, -70, -14, 3, 43, 61, 30, -30, 44, 57,
    54, 53, 51, 2, -5, 80, 55, -25, 24, -37, 39, 75, 2, 44, -66, -77,
    -69, -26, 52, 38, 18, 77, 35, -82, 79, 35, 70, -76, -48, 12, -49, -75,
    61, 10, -44, 44, 45, 59, 80, 50, 75, -49, -91, -43, -15, 46, -16, 64,
    41, 33, 25, -4, 61, 74, 50, 32, -42, -21, 65, 60, -13, 58, -8, 11,
    -75, -50, -30, -59, 65, -64, 57, 33, 18, 71, 3, -60, 35, 54, -60, -83,
    -47, -78, -77, 22, 70, -5, 84, 68, -25, 21, -57, -72, -65, 76, -5, 62,
    -77, -28, 19, 70, -56, -72, -67, 0, 83, -39, -16, 76, 34, 15, 54, 88,
    -13, 2, -2, 45, 88, -45, -23, -63, 30, 64, -32, 36, 48, -85, 55, 11,
    45, -59, -60, 9, 43, -49, 43, 39, -52, 10, 76, 84, 65, -19, 77, -1,
    -72, -1, 28, 28, -1, 16, 6, -70, -16, -2, 54, 40, 40, -64, 58, -104,
    54, -34, 1, 66, -54, 80, -6, -37, 32, 33, 21, 20, 19, 20, 79, -11,
    -70, 71, 69, 0, -42, -21, -17, -34, 30, -66, -57, 26, 39, 58, -69, -30,
    108, 86, 63, -58, -70, -47, 66, -38, 40, -15, -50, -80, 41, -21, 80, -49,
    8, -33, -38, -4, -14, -57, 57, 19, -53, -50, -30, -26, 54, -19, 43, 85,
    -64, -38, -57, 35, -1, 20, -43, 16, -45, 56, -44, -34, -26, 23, 8, -50,
    19, 75, 101, 78, 10, 43, 15, 58, 71, -42, 69, -35, -7, -41, 28, 56,
    -47, 37, 56, -4, 80, 65, 5, 8, 28, 37, 60, 73, 39, -24, 21, -11,
    9, -91, -11, 90, -4, 1, 19, 45, 6, 78, 4, -78, 50, 42, 46, 4,
    -38, 45, 18, 15, 80, -21, -12, -33, 36, -47, 73, -67, 58, 64, 76, -24,
    34, 84, 35, 10, -22, -62, -83, -65, -42, -14, 81, -28, 5, -38, 61, -18,
    42, 91, -72, 22, 50, -38, -54, -60, -35, -8, 42, -57, -4, -87, -60, 14,
    -75, 53, 34, 74, -75, 26, 53, 30, -40, 77, 15, 14, 20, 37, 70, 65,
    69, -14, -49, -24, -80, 76, 77, -7, 80, 43, 1, 40, -68, 43, -13, -56,
    49, -46, -74, 13, -85, 23, 17, -80, 87, -13, 24, 82, -43, 34, 64, 4,
    -78, 19, 3, 62, 65, -13, 23, 11, -16, -31, -18, -76, -78, 80, 86, -86,
    19, 48, 22, 37, 45, -19, 21, 72, 12, 26, -53, 23, 29, 53, 16, 9,
    -97, -72, -2, -89, -20, -19, 45, 71, -8, -43, -16, -38, 58, 25, 72, -26,
    -87, -8, 52, 22, 17, -64, -80, -15, 46, 71, 104, -42, 43, 61, 16, -10,
    18, 60, -16, -4, 13, 57, 2, 44, -14, -25, -2, 56, 45, 34, 95, 27,
    -57, -33, -60, -30, 13, 21, -52, 32, 19, -70, -65, 79, -14, 59, 13, 22,
    8, -37, -43, 49, 34, 38, 15, 65, -15, 7, 83, -64, 37, 56, 84, 48,
    5, 15, 11, 8, 47, -75, 2, -37, 3, 56, -16, -4, -74, 12, -20, -7,
    25, 7, 22, -43, -83, -79, 22, 43, -43, 51, 36, 67, -66, -13, -51, -83,
    -24, 12, 59, 77, -70, -40, -24, -19, -91, 65, 83, -9, -61, 40, -45, 10,
    36, -52, 69, 25, 52, 81, 44, 104, -71, -32, -27, -64, -87, 29, 25, -10,
    44, 19, -30, 3, -54, 1, -35, 87, -16, -71, -7, -52, -52, 72, 66, -19,
    18, 32, -71, -68, 15, -23, -21, -70, 15, 19, -41, 4, -36, 39, 21, -27,
    -85, 25, -62, -75, -47, -19, 61, 12, -45, -48, -71, 66, -1, -1, 89, 65,
    -77, 70, 26, 20, 74, 65, 17, 39, 9, -82, -77, -51, 83, -20, 60, -55,
    70, 38, -74, 0, 76, 56, -37, -86, 61, -23, 76, -11, 64, -6, 41, -65,
    1, -77, 0, 50, -47, -17, -23, -11, -51, -30, -55, 23, 79, 2, -13, -75,
    69, -5, -32, 15, -26, 67, 81, 26, -53, 79, -65, 81, -61, 10, -61, -11,
    -80, -89, -41, 48, -70, 63, 59, -46, 73, -57, 77, -17, 68, -78, -48, -17,
    65, -7, 21, -44, -72, -48, 29, 3, -79, -62, 67, 56, 42, -61, -78, 70,
    6, -3, -85, -80, 4, 28, -28, -26, 8, -57, 11, -84, 27, -10, 53, 45,
    22, -66, -92, 54, -8, 56, 4, 29, -67, -41, -84, -29, -55, 44, -75, 28,
    66, -25, -48, -81, 10, 0, -51, -85, 34, 79, -78, 67, 10, -70, 6, 64,
    -39, -48, -22, 51, 34, -26, -16, -14, 35, 36, -54, 15, 20, -33, -7, 67,
    54, -71, -61, -70, -67, 82, -13, 8, -6, -39, 32, -75, -64, -82, 6, -78,
    11, -25, -22, 67, 17, 37, -64, -66, 28, 36, -55, 49, -45, -66, 80, 45,
    43, -11, -43, -80, 35, 2, -63, -56, -44, 53, -12, -37, 71, 0, 22, -17,
    -29, -15, -79, 58, -2, -42, -75, -61, 38, -4, 19, -78, 55, 64, 35, 59,
    20, 56, 76, 44, 44, 53, 7, -33, 31, 7, -38, -32, -78, 85, -74, -77,
    -54, -9, 47, -44, 57, 36, 66, -68, -14, -68, -35, 38, 80, 34, -87, 72,
    47, -35, -83, 61, 76, -63, -48, -33, -32, 10, 22, -82, 78, -4, -12, 16,
    -17, -65, 48, 16, 64, 33, 56, 45, 11, 19, 36, -83, 24, 80, -22, -27,
    -35, -10, 31, -15, -22, 57, 80, -3, -38, 55, -45, -7, -22, 25, 31, 69,
    -9, 48, -66, 72, -71, 7, -40, 54, 32, -74, -89, -73, -10, 31, -58, 25,
    -59, 45, -29, -22, -7, -9, 29, -39, 45, 18, -35, -16, 76, 55, 42, 28,
    -87, -68, 58, -17, -62, -58, 89, -57, 51, -104, 94, 53, -7, -2, 67, -43,
    -84, -54, -8, 36, 100, 7, 81, -69, -49, 54, 46, 61, 26, 35, 70, 50,
    -51, 4, -18, -37, 34, -78, 22, -17, -57, -75, -80, -66, 45, 117, -13, 88,
    -24, -9, 71, 89, -64, 78, -63, 92, -5, -81, -39, 64, -32, -36, -57, 85,
    -84, 6, -15, 47, 49, 32, -17, 6, -20, -7, -59, 78, -22, 3, 56, 4,
    -4, -6, -2, -2, -28, -11, -77, -30, -5, -29, 29, -85, -84, 18, -35, -18,
    14, 43, 97, 54, 47, 30, -17, 55, -9, 77, 44, -46, 29, -39, -56, 86,
    -14, -12, -72, -35, -64, -65, -32, -65, 37, -30, -19, -41, 44, -38, -73, -70,
    21, 34, -29, -5, 91, -41, 73, 13, -38, 22, 57, 63, 51, 76, 77, 103,
    48, -62, -5, -80, -57, -75, 16, 61, 72, -77, 30, -78, 51, 84, -78, 17,
    54, -94, -81, -78, -70, -1, -50, 64, 60, 7, -3, -39, -12, -44, -7, 1,
    37, 20, 43, 49, -83, 12, 50, 57, -50, -7, -23, -86, -56, -34, -77, -68,
    22, -73, -73, -2, -13, 58, -5, -41, 47, -51, -33, 70, -85, -48, 0, 5,
    -11, -83, -57, -5, -70, -50, 42, -55, 9, 17, 3, -20, -24, 8, 8, -6,
    -55, -76, -30, 64, 4, -49, 70, -47, 83, -18, -31, -85, -28, -14, -21, 66,
    -57, 12, -74, -41, 77, 18, -74, 52, -47, -5, 27, 46, -57, 38, 54, 79,
    -8, 68, 42, -86, -10, -83, 61, -10, -50, 40, -86, -43, -9, -44, 33, 56,
    85, 24, -83, -72, 21, 4, 2, -65, -81, 43, 0, -79, 13, -59, -32, 1,
    29, -8, 58, -85, -11, 55, 73, -70, 44, -34, -72, 31, -66, 75, -54, 57,
    49, -45, 0, -37, -51, -68, 79, 15, -81, -39, -58, 2, -25, -76, 42, -78,
    76, -60, -60, 66, -84, 3, -12, -78, -5, 5, 36, 33, 65, -23, -34, -74,
    33, 39, -26, -29, 0, -52, -59, -89, -67, -25, -73, 39, 41, 56, -4, 70,
    -74, 71, -34, 51, 11, -31, -21, 42, -13, 72, -58, -19, -80, -63, -14, -66,
    -18, 41, 11, -31, 45, -22, -21, -63, -6, 56, -55, 16, -71, 4, -16, -75,
    -22, -51, 78, -39, -35, -31, 46, -84, 25, 10, -19, -63, -62, 47, -54, 70,
    -51, -84, -8, 51, 5, 33, -4, 16, -11, 70, -17, -80, 78, -67, 2, 43,
    66, -46, -27, 0, -47, 79, -77, 29, 46, -88, 76, 29, 0, -33, -15, 16,
    -16, -62, -12, -66, -9, 7, 56, 42, 61, 65, -40, 54, -15, -74, 73, 63,
    12, 102, 39, -27, -3, -12, 59, -49, 38, 72, 57, -57, 23, -24, -95, -19,
    -70, 3, 19, -17, -30, -20, 46, -27, 82, -29, -39, 57, 78, 39, 51, 34,
    -51, -105, 47, -68, 29, 21, 55, 32, -45, 53, -66, -53, 46, -47, -25, -85,
    -23, 15, -90, 49, -57, -62, -20, 70, -23, -83, 3, -18, 25, -14, 44, -85,
    -5, 0, 14, 53, -46, 47, -10, -79, 32, 52, -64, 77, -10, -88, 49, -12,
    25, 64, 6, -53, 77, 21, -44, 11, 17, -71, 17, -24, -4, -20, 61, -11,
    -80, -15, -71, -62, -34, 29, 9, -69, 65, -46, 25, 22, -57, -24, -56, 31,
    73, -11, -45, -69, 23, 82, 51, -58, 67, -6, 6, 10, -47, 83, -41, 38,
    60, 6, 17, -61, -4, -33, -62, 42, -54, 45, -82, -56, -30, -67, 1, -29,
    85, -46, -38, -44, 96, 18, -25, -14, 64, -67, 19, 11, -8, -63, 38, -50,
    17, 41, 24, -54, 24, -4, -56, -40, -47, 61, -25, -35, -30, -46, -56, 80,
    -38, 17, 85, 95, -61, 39, -78, 47, 34, 16, 8, -60, -22, -21, -83, 19,
    -50, 86, 6, 37, -35, 59, 36, 24, 13, -66, 10, 48, -5, 52, -35, -23,
    -76, 2, 63, -24, 46, -25, -53, -8, -12, 45, 73, -57, 3, -39, 47, -50,
    -77, -2, 20, -57, 6, -27, -72, -74, 67, -28, 62, -13, -2, 29, -13, -55,
    -76, -15, 1, 0, -7, 58, -70, 78, 37, -7, -71, -62, -68, 72, 63, -42,
    56, 64, 33, 75, 55, -81, -67, -43, -4, -43, 44, -24, 5, -85, 67, -36,
    -6, -83, 18, 10, 57, -55, 60, 36, 72, -53, -75, -33, 80, 58, 35, -83,
    73, -20, -75, -57, -55, 65, -14, 15, 10, -68, 13, -66, -55, -33, -54, -13,
    36, -67, 42, -32, 17, -12, -63, 29, 9, -65, -3, 83, -71, -34, -47, 0,
    -10, 43, 27, 3, 31, -8, -20, -29, -15, -72, 31, -49, 19, 45, 1, -103,
    80, 30, -10, -21, -29, -2, 90, -21, -24, -78, 45, 56, -73, -17, 55, -82,
    36, 82, -56, 53, 26, 46, 71, 97, 40, -43, -12, -39, -2, 23, 85, -30,
    63, 17, 18, -27, 18, 78, 93, 53, -44, -67, -3, -61, -35, 37, -23, -54,
    70, -16, -58, 25, -44, 75, 48, 8, 47, 53, -8, 1, 40, -70, -38, 17,
    35, 60, -85, 61, 35, -9, -73, 0, 51, -33, 32, -72, -65, -51, -101, 52,
    -24, 57, 31, -13, 72, -54, -39, 70, -27, 66, -86, 16, 68, -59, 0, 45,
    48, -17, -12, -73, 62, -39, 15, -73, 72, -69, 12, -71, -24, 36, -55, 56,
    35, 62, -90, -73, 5, 35, -45, 26, -82, -70, -63, -73, -29, 77, -68, -17,
    -5, 41, -71, 2, -80, 54, 18, 68, -22, 74, -56, 56, 66, -8, -7, 27,
    -24, -20, -49, 83, 13, 52, 13, -86, 44, -60, -25, 33, 5, 31, 80, 73,
    -52, 85, -30, -4, -58, 89, -68, -31, -28, 40, -60, -52, 21, 2, -46, -1,
    83, 23, -43, -71, -38, -68, 29, 45, 4, 70, 68, 71, 79, 31, -34, 68,
    -29, 35, 26, -67, 83, 23, -16, -28, -43, -60, -52, -48, 46, 18, 43, -54,
    19, 78, -7, 16, 66, -75, -33, -73, 82, 73, 75, -5, 34, 9, 22, -44,
    -7, 20, -12, -93, 52, -65, 70, -33, -55, -80, 22, -45, 49, -25, -30, -50,
    -24, 39, -63, 52, -59, -78, 76, -9, -15, 100, -52, -65, 72, 34, 61, 40,
    68, 70, -23, -77, -98, -67, 72, 51, -44, 72, -71, -36, -59, -18, -26, 16,
    32, -3, -32, 24, -20, 94, -84, 47, -19, 58, 40, -65, -35, 9, -51, 7,
    -19, 16, -86, 22, 38, -82, -83, 85, 75, 58, -8, 91, 18, 48, -37, 49,
    -65, 88, 15, 52, 1, 37, -83, 15, -96, 27, 12, -87, -26, 1, 33, -19,
    -11, 80, 50, 82, -48, 78, -17, 34, -3, -10, 74, -10, -37, 69, 76, -9,
    -1, -2, -8, 82, 12, 30, -18, 16, 43, 15, -36, -8, -56, -34, -41, 6,
    -16, 13, -72, -7, 84, -40, -77, -28, -58, 83, -21, -68, 43, 81, -43, -78,
    -58, 57, 7, 15, 25, 33, 1, 57, 7, 31, 36, -24, 1, -51, 35, -36,
    -22, 59, -7, 19, 85, -54, 7, -83, -9, 24, 7, 35, -50, 2, 21, -26,
    -69, -21, -67, -9, -45, 6, 28, -69, 41, -36, -24, 26, -64, -59, -11, 34,
    -75, 18, 65, 67, 12, -48, -51, 80, -39, 69, -50, 29, -60, -44, 54, 36,
    46, -35, -81, -15, -7, 68, -46, -29, -54, -26, 57, 72, -42, 13, -89, -16,
    5, 12, 46, 31, -34, 37, -42, -47, -33, -27, 31, 59, -7, 77, -81, 19,
    -77, -9, 46, 42, -14, 65, 28, -34, -9, -34, 11, -76, -50, 80, -75, -63,
    66, -86, -80, 22, 17, -15, -8, -72, 51, -63, 83, -5, 40, 16, 69, -51,
    -55, 75, 88, 83, -9, -15, 26, 17, 14, -83, 14, 61, -39, -22, -17, -5,
    9, 65, 14, 40, -22, 24, -66, -84, -25, -14, 45, -12, 6, 80, -53, -32,
    -68, 43, 24, 71, 4, -36, -3, 47, -1, -46, 19, -71, 35, -31, -62, 31,
    83, -29, -51, -62, -34, 10, 45, 54, -80, -77, -73, -52, -47, 62, 56, -23,
    76, -77, 45, 71, -43, -69, 75, -29, -11, 69, -31, 24, 5, -68, -1, -6,
    -68, 49, -50, -39, 60, 62, 72, -46, 16, -4, -50, 78, -3, 51, -62, -13,
};
